Language model created by QuickLM on Wed Jan  1 18:11:10 EST 2020
Copyright (c) 1996-2010 Carnegie Mellon University and Alexander I. Rudnicky

The model is in standard ARPA format, designed by Doug Paul while he was at MITRE.

The code that was used to produce this language model is available in Open Source.
Please visit http://www.speech.cs.cmu.edu/tools/ for more information

The (fixed) discount mass is 0.5. The backoffs are computed using the ratio method.
This model based on a corpus of 64 sentences and 71 words

\data\
ngram 1=71
ngram 2=146
ngram 3=144

\1-grams:
-1.0014 </s> -0.3010
-1.0014 <s> -0.2425
-2.2055 A -0.2970
-2.8075 ABLE -0.2997
-2.8075 ABOUT -0.2990
-2.8075 ALOHA -0.2554
-1.8075 ARE -0.2425
-1.9624 ARM -0.2516
-2.3304 AT -0.2471
-2.8075 BONJOUR -0.2554
-2.8075 BOT -0.2554
-2.3304 BRING -0.2935
-2.1086 CAN -0.2845
-2.5065 CHANGE -0.2976
-2.5065 COLOR -0.2554
-1.9624 DO -0.2425
-2.8075 DOING -0.2554
-2.3304 DOWN -0.2554
-2.8075 FEELING -0.2554
-2.8075 FINE -0.2554
-2.8075 FUNNY -0.2554
-2.8075 GOING -0.2554
-2.8075 GREETINGS -0.2554
-2.2055 HAND -0.2532
-2.8075 HEAR -0.2983
-2.0294 HELLO -0.2524
-2.8075 HEY -0.2554
-2.3304 HI -0.2547
-2.2055 HOW -0.2928
-2.8075 I -0.3004
-2.5065 INTRODUCE -0.2990
-2.5065 IS -0.2990
-2.8075 IT -0.3004
-2.3304 JOKE -0.2554
-2.8075 LAUGH -0.2554
-2.8075 LIFT -0.2935
-2.3304 LIGHT -0.2554
-2.3304 LOOK -0.2532
-2.8075 LOOKING -0.2990
-2.3304 LOWER -0.2471
-2.8075 LUCY -0.2554
-2.3304 MAKE -0.2915
-1.8533 ME -0.2417
-2.8075 MOVE -0.2935
-2.5065 PLEASE -0.2956
-2.8075 PUT -0.2935
-2.3304 RAISE -0.2471
-2.8075 SAY -0.2990
-2.3304 SEE -0.2486
-2.8075 SHINE -0.2554
-2.8075 SOMETHING -0.3004
-2.8075 TAKE -0.2983
-2.0294 TELL -0.2949
-2.1086 THE -0.2976
-2.8075 THERE -0.2554
-2.5065 THIS -0.2554
-2.8075 TJ -0.3004
-2.8075 TJBOT -0.2554
-2.5065 TO -0.2956
-2.8075 TURN -0.2976
-2.5065 UP -0.2554
-2.8075 WANT -0.2997
-2.8075 WATSON -0.2554
-2.5065 WAVE -0.2471
-2.8075 WELL -0.2554
-1.8533 WHAT -0.2724
-2.8075 WHAT'S -0.2997
-2.5065 WHO -0.2824
-1.5771 YOU -0.2315
-1.7661 YOUR -0.2935
-2.3304 YOURSELF -0.2554

\2-grams:
-2.1072 <s> ALOHA 0.0000
-1.8062 <s> ARE -0.0414
-2.1072 <s> BONJOUR 0.0000
-1.6301 <s> BRING 0.0000
-1.8062 <s> CAN -0.0792
-1.8062 <s> CHANGE 0.0000
-2.1072 <s> GREETINGS 0.0000
-1.3291 <s> HELLO 0.0000
-2.1072 <s> HEY 0.0000
-1.8062 <s> HI 0.0000
-1.5051 <s> HOW 0.0000
-2.1072 <s> I 0.0000
-2.1072 <s> INTRODUCE 0.0000
-2.1072 <s> LIFT 0.0000
-1.8062 <s> LOOK -0.1249
-1.6301 <s> LOWER 0.0000
-1.6301 <s> MAKE 0.0000
-2.1072 <s> MOVE 0.0000
-1.8062 <s> PLEASE 0.0000
-2.1072 <s> PUT 0.0000
-1.6301 <s> RAISE 0.0000
-2.1072 <s> SAY 0.0000
-2.1072 <s> SHINE 0.0000
-2.1072 <s> TAKE 0.0000
-1.4082 <s> TELL 0.0000
-2.1072 <s> TURN 0.0000
-1.8062 <s> WAVE 0.0000
-1.2041 <s> WHAT -0.0458
-2.1072 <s> WHAT'S 0.0000
-2.1072 <s> WHO -0.1761
-0.4260 A JOKE 0.0000
-0.9031 A LOOK -0.2218
-0.3010 ABLE TO -0.1761
-0.3010 ABOUT YOURSELF 0.0000
-0.3010 ALOHA </s> -0.3010
-1.3010 ARE </s> -0.3010
-0.3468 ARE YOU -0.1675
-0.4472 ARM </s> -0.3010
-1.1461 ARM DOWN 0.0000
-1.1461 ARM UP 0.0000
-0.7782 AT </s> -0.3010
-0.7782 AT ME -0.2499
-0.7782 AT THIS 0.0000
-0.3010 BONJOUR </s> -0.3010
-0.3010 BOT </s> -0.3010
-0.3010 BRING YOUR 0.0000
-1.0000 CAN DO -0.1091
-0.3979 CAN YOU -0.2167
-0.3010 CHANGE THE 0.0000
-0.3010 COLOR </s> -0.3010
-0.4472 DO </s> -0.3010
-0.8451 DO YOU -0.2167
-0.3010 DOING </s> -0.3010
-0.3010 DOWN </s> -0.3010
-0.3010 FEELING </s> -0.3010
-0.3010 FINE </s> -0.3010
-0.3010 FUNNY </s> -0.3010
-0.3010 GOING </s> -0.3010
-0.3010 GREETINGS </s> -0.3010
-0.6021 HAND </s> -0.3010
-0.6021 HAND DOWN 0.0000
-0.3010 HEAR A -0.0969
-0.7782 HELLO </s> -0.3010
-1.0792 HELLO LUCY 0.0000
-1.0792 HELLO TJ 0.0000
-1.0792 HELLO TJBOT 0.0000
-1.0792 HELLO WATSON 0.0000
-0.3010 HEY </s> -0.3010
-0.4771 HI </s> -0.3010
-0.7782 HI THERE 0.0000
-0.4260 HOW ARE -0.0414
-0.9031 HOW IS -0.1761
-0.3010 I WANT 0.0000
-0.3010 INTRODUCE YOURSELF 0.0000
-0.6021 IS IT 0.0000
-0.6021 IS THIS 0.0000
-0.3010 IT GOING 0.0000
-0.3010 JOKE </s> -0.3010
-0.3010 LAUGH </s> -0.3010
-0.3010 LIFT YOUR -0.1347
-0.3010 LIGHT </s> -0.3010
-0.7782 LOOK </s> -0.3010
-0.4771 LOOK AT -0.1249
-0.3010 LOOKING AT -0.2218
-0.7782 LOWER </s> -0.3010
-0.4771 LOWER YOUR 0.0000
-0.3010 LUCY </s> -0.3010
-0.7782 MAKE ME -0.2762
-0.4771 MAKE THE 0.0000
-0.9542 ME </s> -0.3010
-0.9542 ME A -0.0969
-1.2553 ME ABOUT 0.0000
-1.2553 ME LAUGH 0.0000
-1.2553 ME SOMETHING 0.0000
-1.2553 ME WHAT -0.2762
-1.2553 ME WHO -0.1761
-0.3010 MOVE YOUR -0.1347
-0.6021 PLEASE INTRODUCE 0.0000
-0.6021 PLEASE TELL 0.0000
-0.3010 PUT YOUR -0.2139
-0.7782 RAISE </s> -0.3010
-0.4771 RAISE YOUR 0.0000
-0.3010 SAY HI -0.1249
-0.4771 SEE </s> -0.3010
-0.7782 SEE ME -0.2499
-0.3010 SHINE </s> -0.3010
-0.3010 SOMETHING FUNNY 0.0000
-0.3010 TAKE A -0.2430
-0.3010 TELL ME -0.1249
-0.6990 THE COLOR 0.0000
-0.5229 THE LIGHT 0.0000
-0.3010 THERE </s> -0.3010
-0.3010 THIS </s> -0.3010
-0.3010 TJ BOT 0.0000
-0.3010 TJBOT </s> -0.3010
-0.6021 TO DO -0.1091
-0.6021 TO HEAR 0.0000
-0.3010 TURN THE -0.1461
-0.3010 UP </s> -0.3010
-0.3010 WANT TO -0.1761
-0.3010 WATSON </s> -0.3010
-0.6021 WAVE </s> -0.3010
-0.6021 WAVE YOUR -0.1347
-0.3010 WELL </s> -0.3010
-0.7782 WHAT ARE -0.0414
-0.9542 WHAT CAN -0.0792
-0.9542 WHAT DO -0.2341
-1.2553 WHAT IS -0.1761
-1.2553 WHAT YOU -0.2881
-0.3010 WHAT'S UP 0.0000
-0.6021 WHO ARE -0.0414
-0.6021 WHO YOU -0.2881
-1.0544 YOU </s> -0.3010
-1.5315 YOU ABLE 0.0000
-1.5315 YOU ARE -0.2788
-1.5315 YOU CAN -0.2553
-1.0544 YOU DO -0.1091
-1.5315 YOU DOING 0.0000
-1.5315 YOU FEELING 0.0000
-1.5315 YOU FINE 0.0000
-1.5315 YOU LOOKING 0.0000
-1.0544 YOU SEE 0.0000
-1.5315 YOU WELL 0.0000
-0.4973 YOUR ARM 0.0000
-0.7404 YOUR HAND 0.0000
-0.3010 YOURSELF </s> -0.3010

\3-grams:
-0.3010 <s> ALOHA </s>
-0.3010 <s> ARE YOU
-0.3010 <s> BONJOUR </s>
-0.3010 <s> BRING YOUR
-0.3010 <s> CAN YOU
-0.3010 <s> CHANGE THE
-0.3010 <s> GREETINGS </s>
-0.7782 <s> HELLO </s>
-1.0792 <s> HELLO LUCY
-1.0792 <s> HELLO TJ
-1.0792 <s> HELLO TJBOT
-1.0792 <s> HELLO WATSON
-0.3010 <s> HEY </s>
-0.6021 <s> HI </s>
-0.6021 <s> HI THERE
-0.4260 <s> HOW ARE
-0.9031 <s> HOW IS
-0.3010 <s> I WANT
-0.3010 <s> INTRODUCE YOURSELF
-0.3010 <s> LIFT YOUR
-0.3010 <s> LOOK AT
-0.7782 <s> LOWER </s>
-0.4771 <s> LOWER YOUR
-0.7782 <s> MAKE ME
-0.4771 <s> MAKE THE
-0.3010 <s> MOVE YOUR
-0.6021 <s> PLEASE INTRODUCE
-0.6021 <s> PLEASE TELL
-0.3010 <s> PUT YOUR
-0.7782 <s> RAISE </s>
-0.4771 <s> RAISE YOUR
-0.3010 <s> SAY HI
-0.3010 <s> SHINE </s>
-0.3010 <s> TAKE A
-0.3010 <s> TELL ME
-0.3010 <s> TURN THE
-0.6021 <s> WAVE </s>
-0.6021 <s> WAVE YOUR
-0.7270 <s> WHAT ARE
-0.9031 <s> WHAT CAN
-0.9031 <s> WHAT DO
-1.2041 <s> WHAT IS
-0.3010 <s> WHAT'S UP
-0.3010 <s> WHO ARE
-0.3010 A JOKE </s>
-0.3010 A LOOK </s>
-0.3010 ABLE TO DO
-0.3010 ABOUT YOURSELF </s>
-0.7782 ARE YOU </s>
-1.2553 ARE YOU ABLE
-1.2553 ARE YOU DOING
-1.2553 ARE YOU FEELING
-1.2553 ARE YOU FINE
-1.2553 ARE YOU LOOKING
-1.2553 ARE YOU WELL
-0.3010 ARM DOWN </s>
-0.3010 ARM UP </s>
-0.3010 AT ME </s>
-0.3010 AT THIS </s>
-0.4771 BRING YOUR ARM
-0.7782 BRING YOUR HAND
-0.3010 CAN DO </s>
-0.6021 CAN YOU DO
-0.6021 CAN YOU SEE
-0.6021 CHANGE THE COLOR
-0.6021 CHANGE THE LIGHT
-0.6021 DO YOU DO
-0.6021 DO YOU SEE
-0.3010 HAND DOWN </s>
-0.3010 HEAR A JOKE
-0.3010 HELLO LUCY </s>
-0.3010 HELLO TJ BOT
-0.3010 HELLO TJBOT </s>
-0.3010 HELLO WATSON </s>
-0.3010 HI THERE </s>
-0.3010 HOW ARE YOU
-0.3010 HOW IS IT
-0.3010 I WANT TO
-0.3010 INTRODUCE YOURSELF </s>
-0.3010 IS IT GOING
-0.3010 IS THIS </s>
-0.3010 IT GOING </s>
-0.3010 LIFT YOUR ARM
-0.6021 LOOK AT ME
-0.6021 LOOK AT THIS
-0.3010 LOOKING AT </s>
-0.6021 LOWER YOUR ARM
-0.6021 LOWER YOUR HAND
-0.3010 MAKE ME LAUGH
-0.6021 MAKE THE COLOR
-0.6021 MAKE THE LIGHT
-0.3010 ME A JOKE
-0.3010 ME ABOUT YOURSELF
-0.3010 ME LAUGH </s>
-0.3010 ME SOMETHING FUNNY
-0.3010 ME WHAT YOU
-0.3010 ME WHO YOU
-0.3010 MOVE YOUR ARM
-0.3010 PLEASE INTRODUCE YOURSELF
-0.3010 PLEASE TELL ME
-0.3010 PUT YOUR HAND
-0.6021 RAISE YOUR ARM
-0.6021 RAISE YOUR HAND
-0.3010 SAY HI </s>
-0.3010 SEE ME </s>
-0.3010 SOMETHING FUNNY </s>
-0.3010 TAKE A LOOK
-0.7782 TELL ME A
-1.0792 TELL ME ABOUT
-1.0792 TELL ME SOMETHING
-1.0792 TELL ME WHAT
-1.0792 TELL ME WHO
-0.3010 THE COLOR </s>
-0.3010 THE LIGHT </s>
-0.3010 TJ BOT </s>
-0.3010 TO DO </s>
-0.3010 TO HEAR A
-0.3010 TURN THE LIGHT
-0.3010 WANT TO HEAR
-0.3010 WAVE YOUR ARM
-0.3010 WHAT ARE YOU
-0.3010 WHAT CAN YOU
-0.3010 WHAT DO YOU
-0.3010 WHAT IS THIS
-0.3010 WHAT YOU CAN
-0.3010 WHAT'S UP </s>
-0.3010 WHO ARE YOU
-0.3010 WHO YOU ARE
-0.3010 YOU ABLE TO
-0.3010 YOU ARE </s>
-0.3010 YOU CAN DO
-0.3010 YOU DO </s>
-0.3010 YOU DOING </s>
-0.3010 YOU FEELING </s>
-0.3010 YOU FINE </s>
-0.3010 YOU LOOKING AT
-0.4771 YOU SEE </s>
-0.7782 YOU SEE ME
-0.3010 YOU WELL </s>
-0.4472 YOUR ARM </s>
-1.1461 YOUR ARM DOWN
-1.1461 YOUR ARM UP
-0.6021 YOUR HAND </s>
-0.6021 YOUR HAND DOWN

\end\
